digraph Tree {
node [shape=box] ;
0 [label="is_married <= 0.5\nimpurity = 0.7964\nsamples = 32561\nvalue = [24720, 7841]"] ;
1 [label="education_num <= 12.5\nimpurity = 0.3449\nsamples = 17144\nvalue = [16039, 1105]"] ;
0 -> 1 [labeldistance=2.5, labelangle=45, headlabel="True"] ;
2 [label="age <= 28.5\nimpurity = 0.2041\nsamples = 13645\nvalue = [13209, 436]"] ;
1 -> 2 ;
3 [label="hours_per_week <= 49.5\nimpurity = 0.06\nsamples = 6160\nvalue = [6117, 43]"] ;
2 -> 3 ;
4 [label="age <= 21.5\nimpurity = 0.0367\nsamples = 5663\nvalue = [5641, 22]"] ;
3 -> 4 ;
5 [label="impurity = 0.0045\nsamples = 2861\nvalue = [2860, 1]"] ;
4 -> 5 ;
6 [label="impurity = 0.0637\nsamples = 2802\nvalue = [2781, 21]"] ;
4 -> 6 ;
7 [label="occupation_professional <= 0.5\nimpurity = 0.2525\nsamples = 497\nvalue = [476, 21]"] ;
3 -> 7 ;
8 [label="impurity = 0.1894\nsamples = 448\nvalue = [435, 13]"] ;
7 -> 8 ;
9 [label="impurity = 0.6421\nsamples = 49\nvalue = [41, 8]"] ;
7 -> 9 ;
10 [label="hours_per_week <= 40.5\nimpurity = 0.2969\nsamples = 7485\nvalue = [7092, 393]"] ;
2 -> 10 ;
11 [label="occupation_professional <= 0.5\nimpurity = 0.2153\nsamples = 5809\nvalue = [5610, 199]"] ;
10 -> 11 ;
12 [label="impurity = 0.1675\nsamples = 5086\nvalue = [4960, 126]"] ;
11 -> 12 ;
13 [label="impurity = 0.4721\nsamples = 723\nvalue = [650, 73]"] ;
11 -> 13 ;
14 [label="sex <= 0.5\nimpurity = 0.517\nsamples = 1676\nvalue = [1482, 194]"] ;
10 -> 14 ;
15 [label="impurity = 0.5984\nsamples = 1031\nvalue = [881, 150]"] ;
14 -> 15 ;
16 [label="impurity = 0.3592\nsamples = 645\nvalue = [601, 44]"] ;
14 -> 16 ;
17 [label="age <= 27.5\nimpurity = 0.704\nsamples = 3499\nvalue = [2830, 669]"] ;
1 -> 17 ;
18 [label="hours_per_week <= 34.0\nimpurity = 0.1882\nsamples = 1008\nvalue = [979, 29]"] ;
17 -> 18 ;
19 [label="impurity = 0.0\nsamples = 213\nvalue = [213, 0]"] ;
18 -> 19 ;
20 [label="sex <= 0.5\nimpurity = 0.2259\nsamples = 795\nvalue = [766, 29]"] ;
18 -> 20 ;
21 [label="impurity = 0.3048\nsamples = 386\nvalue = [365, 21]"] ;
20 -> 21 ;
22 [label="impurity = 0.139\nsamples = 409\nvalue = [401, 8]"] ;
20 -> 22 ;
23 [label="hours_per_week <= 43.5\nimpurity = 0.8221\nsamples = 2491\nvalue = [1851, 640]"] ;
17 -> 23 ;
24 [label="education_num <= 14.5\nimpurity = 0.6462\nsamples = 1515\nvalue = [1265, 250]"] ;
23 -> 24 ;
25 [label="impurity = 0.5895\nsamples = 1394\nvalue = [1196, 198]"] ;
24 -> 25 ;
26 [label="impurity = 0.9857\nsamples = 121\nvalue = [69, 52]"] ;
24 -> 26 ;
27 [label="education_num <= 14.5\nimpurity = 0.9707\nsamples = 976\nvalue = [586, 390]"] ;
23 -> 27 ;
28 [label="impurity = 0.945\nsamples = 835\nvalue = [532, 303]"] ;
27 -> 28 ;
29 [label="impurity = 0.9601\nsamples = 141\nvalue = [54, 87]"] ;
27 -> 29 ;
30 [label="education_num <= 12.5\nimpurity = 0.9885\nsamples = 15417\nvalue = [8681, 6736]"] ;
0 -> 30 [labeldistance=2.5, labelangle=-45, headlabel="False"] ;
31 [label="education_num <= 8.5\nimpurity = 0.9068\nsamples = 10849\nvalue = [7353, 3496]"] ;
30 -> 31 ;
32 [label="age <= 35.5\nimpurity = 0.5123\nsamples = 1796\nvalue = [1591, 205]"] ;
31 -> 32 ;
33 [label="from_central_america <= 0.5\nimpurity = 0.2839\nsamples = 506\nvalue = [481, 25]"] ;
32 -> 33 ;
34 [label="impurity = 0.35\nsamples = 380\nvalue = [355, 25]"] ;
33 -> 34 ;
35 [label="impurity = 0.0\nsamples = 126\nvalue = [126, 0]"] ;
33 -> 35 ;
36 [label="hours_per_week <= 29.0\nimpurity = 0.583\nsamples = 1290\nvalue = [1110, 180]"] ;
32 -> 36 ;
37 [label="impurity = 0.1925\nsamples = 135\nvalue = [131, 4]"] ;
36 -> 37 ;
38 [label="impurity = 0.6158\nsamples = 1155\nvalue = [979, 176]"] ;
36 -> 38 ;
39 [label="age <= 35.5\nimpurity = 0.9456\nsamples = 9053\nvalue = [5762, 3291]"] ;
31 -> 39 ;
40 [label="age <= 24.5\nimpurity = 0.7822\nsamples = 2986\nvalue = [2292, 694]"] ;
39 -> 40 ;
41 [label="impurity = 0.3285\nsamples = 365\nvalue = [343, 22]"] ;
40 -> 41 ;
42 [label="impurity = 0.8213\nsamples = 2621\nvalue = [1949, 672]"] ;
40 -> 42 ;
43 [label="occupation_blue_collar <= 0.5\nimpurity = 0.985\nsamples = 6067\nvalue = [3470, 2597]"] ;
39 -> 43 ;
44 [label="impurity = 0.9992\nsamples = 3030\nvalue = [1466, 1564]"] ;
43 -> 44 ;
45 [label="impurity = 0.925\nsamples = 3037\nvalue = [2004, 1033]"] ;
43 -> 45 ;
46 [label="occupation_professional <= 0.5\nimpurity = 0.8696\nsamples = 4568\nvalue = [1328, 3240]"] ;
30 -> 46 ;
47 [label="occupation_blue_collar <= 0.5\nimpurity = 0.9802\nsamples = 1565\nvalue = [653, 912]"] ;
46 -> 47 ;
48 [label="hours_per_week <= 34.5\nimpurity = 0.9437\nsamples = 1135\nvalue = [410, 725]"] ;
47 -> 48 ;
49 [label="impurity = 0.983\nsamples = 163\nvalue = [94, 69]"] ;
48 -> 49 ;
50 [label="impurity = 0.9098\nsamples = 972\nvalue = [316, 656]"] ;
48 -> 50 ;
51 [label="hours_per_week <= 41.0\nimpurity = 0.9877\nsamples = 430\nvalue = [243, 187]"] ;
47 -> 51 ;
52 [label="impurity = 0.9408\nsamples = 246\nvalue = [158, 88]"] ;
51 -> 52 ;
53 [label="impurity = 0.9958\nsamples = 184\nvalue = [85, 99]"] ;
51 -> 53 ;
54 [label="age <= 28.5\nimpurity = 0.7688\nsamples = 3003\nvalue = [675, 2328]"] ;
46 -> 54 ;
55 [label="age <= 25.5\nimpurity = 0.9926\nsamples = 158\nvalue = [87, 71]"] ;
54 -> 55 ;
56 [label="impurity = 0.874\nsamples = 51\nvalue = [36, 15]"] ;
55 -> 56 ;
57 [label="impurity = 0.9984\nsamples = 107\nvalue = [51, 56]"] ;
55 -> 57 ;
58 [label="hours_per_week <= 26.5\nimpurity = 0.7351\nsamples = 2845\nvalue = [588, 2257]"] ;
54 -> 58 ;
59 [label="impurity = 1.0\nsamples = 114\nvalue = [57, 57]"] ;
58 -> 59 ;
60 [label="impurity = 0.7107\nsamples = 2731\nvalue = [531, 2200]"] ;
58 -> 60 ;
}